{"model_data": {"model": "SimpleRNN", "input_size": 2, "skip": 1, "output_size": 1, "unit_type": "LSTM", "num_layers": 1, "hidden_size": 20, "bias_fl": true}, "state_dict": {"rec.weight_ih_l0": [[0.15445643663406372, 0.2561433017253876], [-0.0021609722170978785, -0.22310146689414978], [0.013231409713625908, 0.14456993341445923], [-0.15099172294139862, -0.026751689612865448], [-0.10396579653024673, -0.025613227859139442], [-0.03677292540669441, 0.02527197264134884], [-0.03403790295124054, -0.3989914655685425], [-0.06177249550819397, -0.24400129914283752], [-0.32023945450782776, 0.2144937962293625], [0.04641316086053848, -0.0676734447479248], [0.27809301018714905, -0.3807906210422516], [-0.05722441524267197, 0.25177255272865295], [-0.08370055258274078, -0.27690914273262024], [0.02162841707468033, 0.008517037145793438], [0.014456480741500854, 0.13328173756599426], [-0.00889222789555788, -0.02343887649476528], [-0.058246880769729614, 0.1474906951189041], [-0.18009914457798004, -0.40206390619277954], [0.03180193528532982, 0.0336427167057991], [0.022083459421992302, 1.2441773414611816], [0.044347137212753296, -0.2154853790998459], [0.11673051863908768, 0.20118409395217896], [-0.026829387992620468, 0.05280030518770218], [-0.3172370493412018, 0.0839148536324501], [-0.09634074568748474, 0.0008553494699299335], [-0.0959351509809494, 0.3239379823207855], [-0.08557591587305069, 0.36305174231529236], [-0.05480680987238884, 0.17659668624401093], [-0.4010068476200104, 0.17719291150569916], [-0.07434635609388351, 0.29437780380249023], [-0.0003379377885721624, 1.3882893323898315], [-0.05840771272778511, -0.05191726237535477], [-0.10655730962753296, 0.3354007601737976], [0.04878665879368782, 0.15697088837623596], [-0.06605885177850723, 0.24950669705867767], [-0.052863817662000656, 0.2152412235736847], [0.04238847643136978, 0.07325103878974915], [-0.07168807834386826, -0.3367857038974762], [0.013823311775922775, 0.315489262342453], [0.1028713807463646, 0.11281374096870422], [-0.1060953140258789, 0.3583086431026459], [0.2877269387245178, -0.13312719762325287], [0.6373303532600403, 0.08556259423494339], [-0.07861946523189545, -0.9302699565887451], [0.13992370665073395, -0.1929164081811905], [0.1371021270751953, 0.18824642896652222], [-0.4021708369255066, 0.030537709593772888], [0.043762288987636566, 0.03919095918536186], [0.11369144171476364, 0.0489940382540226], [0.10471592843532562, -0.09195181727409363], [-0.4024064242839813, 0.0901869460940361], [0.07325706630945206, 0.06488798558712006], [-0.02493070624768734, 0.10978299379348755], [0.055730219930410385, 0.17094027996063232], [0.3207721710205078, 0.20609919726848602], [-0.4522220492362976, 0.16076143085956573], [0.24347318708896637, 0.1337001621723175], [-0.03801683709025383, -0.06590651720762253], [0.15566599369049072, 0.03381629288196564], [1.4301611185073853, 0.06165210157632828], [0.1404733806848526, -0.07617954909801483], [-0.0734795555472374, 0.13578754663467407], [0.02998180128633976, 0.15956437587738037], [0.08546304702758789, -0.599362313747406], [-0.1024896651506424, -0.022570377215743065], [-0.02534308284521103, 0.11923278868198395], [0.05769719183444977, 0.19275061786174774], [-0.011865781620144844, 0.06170200929045677], [-0.053813040256500244, 0.28467071056365967], [0.012594477273523808, 0.07758630812168121], [0.21185286343097687, 0.38419440388679504], [-0.14060534536838531, -0.0604189895093441], [-0.051720935851335526, 0.0954250916838646], [0.026120081543922424, 0.06167083978652954], [0.03172517195343971, 0.1305917352437973], [-0.004290697630494833, -0.0033590008970350027], [-0.04180925339460373, 0.22670817375183105], [-0.07922745496034622, -0.11460946500301361], [-0.05627338960766792, 0.4347495436668396], [0.0032844403758645058, 1.0410957336425781]], "rec.weight_hh_l0": [[-0.02300129272043705, 0.02952784299850464, 0.040049485862255096, -0.003042332362383604, 0.005204302258789539, 0.0035921975504606962, 0.04324786737561226, 0.013248278759419918, -0.08048892766237259, -0.03320235013961792, -0.05958617478609085, -0.21120023727416992, -0.026870664209127426, -0.0004155300557613373, 0.06523144990205765, 0.047570232301950455, 0.032754555344581604, 0.03980141505599022, 0.014384197071194649, 0.12662947177886963], [0.0871601477265358, 0.029809758067131042, 0.14203262329101562, 0.13360907137393951, -0.0281603392213583, -0.055928364396095276, 0.09564627707004547, 0.01357400231063366, -0.0326339416205883, 0.07478881627321243, -0.012133033014833927, 0.06502934545278549, -0.03745771944522858, -0.08968331664800644, -0.1336377114057541, -0.04299705848097801, 0.02372453734278679, -0.031627725809812546, -0.04299638792872429, 0.09734521061182022], [-0.0679783970117569, 0.029099570587277412, 0.04869578406214714, 0.10789112001657486, 0.009147809818387032, 0.01987830176949501, 0.003460375592112541, -0.02135060727596283, -0.030800415202975273, -0.017176400870084763, -0.010845872573554516, -0.04911850765347481, -0.03512748330831528, -0.021231399849057198, 0.041541799902915955, -0.012594231404364109, -0.001283601624891162, 0.01118633896112442, 0.0006785952718928456, 0.10087331384420395], [0.05654144659638405, -0.03027254156768322, -0.012402360327541828, 0.10539036989212036, -0.015142383053898811, 0.03621678426861763, 0.05071829631924629, -0.00941033847630024, 0.102584607899189, -0.04453709349036217, 0.05275135114789009, -0.06313635408878326, 0.03658467158675194, -0.007667406927794218, -0.056884296238422394, 0.025731457397341728, 0.020559607073664665, 0.02991643361747265, -0.014592038467526436, -0.11012131720781326], [0.04389817640185356, -0.023433202877640724, -0.016076216474175453, 0.025049882009625435, -0.001997837796807289, 0.005640125367790461, 0.003627225523814559, -0.0010104633402079344, 0.021988511085510254, 0.0342961922287941, 0.04733950272202492, 0.06847518682479858, 0.007552701979875565, -0.0013957894407212734, -0.025395866483449936, 0.003773084841668606, -0.0053120763041079044, -0.02561330422759056, 0.01999475806951523, -0.02188267931342125], [0.058598972856998444, -0.007632197812199593, 0.012125888839364052, -0.028296027332544327, 0.0007868187967687845, 0.019054962322115898, -0.14392174780368805, -0.03966109827160835, -0.03523930907249451, 0.04173152893781662, -0.013850023970007896, -0.09576244652271271, -0.0737970843911171, 0.022481968626379967, -0.06108253076672554, 0.030229151248931885, -0.06085018813610077, -0.025471657514572144, 0.007497213315218687, 0.06570795923471451], [-0.009736308827996254, 0.012832660228013992, -0.03907274082303047, 0.01165712159126997, -0.024125922471284866, 0.10252303630113602, 0.018934734165668488, -0.044703129678964615, 0.00109842699021101, -0.035097382962703705, -0.03474484384059906, 0.17496101558208466, -0.06883558630943298, 0.12131676077842712, -0.06408103555440903, 0.0465288870036602, -0.045041922479867935, 0.01175650767982006, -0.02726701647043228, 0.05976492539048195], [-0.13125163316726685, -0.17196246981620789, -0.07944478839635849, -0.043913066387176514, -0.0011312192073091865, -0.16537731885910034, 0.0008329053525812924, 0.021659383550286293, -0.035957030951976776, -0.09080848097801208, -0.14030875265598297, 0.34339427947998047, 0.008963228203356266, -0.03032812289893627, 0.0035790475085377693, -0.0696784034371376, -0.05560096725821495, -0.08604677021503448, 0.16962724924087524, 0.06850793957710266], [-0.16142135858535767, 0.02225302904844284, 0.06559715420007706, 0.038186393678188324, -0.06622442603111267, 0.03640947863459587, -0.09765953570604324, -0.0221626665443182, 0.11512884497642517, -0.0715496763586998, 0.05325280874967575, 0.29064351320266724, -0.14539571106433868, 0.06367431581020355, 0.048026472330093384, 0.04882130026817322, -0.0352439358830452, -0.03715791180729866, 0.04841911792755127, 0.08864333480596542], [0.21944265067577362, -0.06582274287939072, 0.18321269750595093, 0.17022739350795746, -0.034135475754737854, -0.030387606471776962, 0.0582597590982914, 0.011446524411439896, 0.031147358939051628, -0.10041895508766174, 0.024323003366589546, 0.011119497008621693, -0.0005324744852259755, -0.06459615379571915, -0.02248935028910637, 0.11756284534931183, 0.016220156103372574, 0.0415726900100708, -0.1338440328836441, 0.014597649686038494], [-0.14668115973472595, 0.05891500040888786, 0.006785860750824213, 0.5308348536491394, -0.13361701369285583, 0.035144224762916565, 0.0984068289399147, 0.05895155668258667, -0.01873037964105606, -0.040243808180093765, -0.0007783439941704273, 0.8477009534835815, 0.09844974428415298, -0.05780801549553871, 0.1781027615070343, 0.018081314861774445, 0.03568882867693901, 0.1243891492486, -0.0709768533706665, 0.35683101415634155], [0.07315907627344131, 0.005777549464255571, 0.019922766834497452, -0.11308079957962036, 0.015586652792990208, 0.015239711850881577, -0.0026185112074017525, -0.009369359351694584, 0.11822203546762466, 0.01486960519105196, -0.045120470225811005, -0.08720541000366211, -0.01629479043185711, 0.0025179048534482718, -0.021939510479569435, 0.006848842371255159, -0.013405101373791695, -0.04509434103965759, -0.0294018741697073, -0.13532140851020813], [-0.009232304990291595, -0.008563772775232792, 0.002689121523872018, 0.045717451721429825, -0.002189108170568943, -0.033209603279829025, -0.031042426824569702, -0.00902917142957449, -0.041287634521722794, 0.05495623126626015, 0.020742548629641533, 0.32929113507270813, -0.03469320759177208, -0.022119982168078423, -0.02672201581299305, 0.01125593576580286, 0.0165407694876194, -0.03853439912199974, -0.027782712131738663, 0.20722584426403046], [-0.0029685036279261112, -0.05177369341254234, 0.05086012929677963, 0.09126372635364532, -0.007598483934998512, -0.06745678931474686, 0.0314754992723465, 0.02644333243370056, -0.016137057915329933, -0.05694710835814476, -0.03798761963844299, 0.09607509523630142, -0.031096309423446655, -0.023681337013840675, -0.023788968101143837, 0.018958909437060356, -0.004121025092899799, -0.006661304272711277, -0.11023782193660736, 0.040497492998838425], [0.06961291283369064, -0.005507787223905325, 0.052880819886922836, 0.041653234511613846, 0.0027280037757009268, 0.022727224975824356, 0.01943534053862095, -0.0016797414282336831, -0.019113872200250626, 0.019256550818681717, 0.030377468094229698, -0.2007686346769333, 0.026834499090909958, -0.010284632444381714, 0.00048485939623788, -0.001172829419374466, 0.003067964455112815, -0.009819860570132732, 0.0007754925172775984, -0.004365092609077692], [0.0022984840907156467, 0.007970686070621014, 0.035755667835474014, 0.03551961109042168, 0.009795526042580605, -0.0002693807182367891, 0.0055084521882236, 0.013250727206468582, -0.031971223652362823, -0.012695005163550377, -0.002609657822176814, -0.13365434110164642, 0.0037787770852446556, -0.001033153967000544, -0.053194597363471985, -0.013771587051451206, 0.013984329998493195, -0.044916074723005295, -0.005491920746862888, 0.06029829755425453], [0.055845826864242554, -0.07989867776632309, -0.04556001350283623, -0.13994665443897247, -0.01762404665350914, -0.027051517739892006, -0.0428595095872879, 0.025539299473166466, -0.005143843591213226, -0.00990462675690651, -0.010105001740157604, 0.09490972012281418, -0.06655431538820267, 0.011028381995856762, -0.040118537843227386, 0.039813000708818436, -0.021676080301404, 0.020628895610570908, 0.021217679604887962, 0.01613209955394268], [-0.023604733869433403, 0.03793523460626602, -0.028752824291586876, -0.12463052570819855, 0.009985671378672123, -0.062002770602703094, -0.030092665925621986, 0.011952420696616173, 0.030655497685074806, 0.08536157757043839, 0.04615529254078865, 0.06914037466049194, 0.041109222918748856, -0.03206358850002289, -0.09989019483327866, -0.08735038340091705, -0.04887852072715759, -0.02934490144252777, -0.019209882244467735, 0.1976475566625595], [0.07846387475728989, 0.028632331639528275, -0.03687475621700287, 0.060750044882297516, 0.0510357990860939, -0.014278922230005264, 0.15774087607860565, -0.08495672792196274, -0.03382230922579765, -0.06268668919801712, -0.09165345877408981, 0.27298703789711, -0.07531824707984924, -0.052909817546606064, -0.09391988813877106, -0.00024313927860930562, -0.07698752731084824, 0.0710589811205864, -0.04248334467411041, 0.012193344533443451], [-0.12758536636829376, 0.03538716956973076, 0.020216314122080803, -0.41555750370025635, -0.05130409821867943, 0.04786250740289688, -0.0689399242401123, -0.013702506199479103, -0.009384233504533768, -0.009948317892849445, 0.08199021220207214, -0.06764034926891327, 0.025607002899050713, -0.00245320494286716, 0.13625359535217285, 0.029716428369283676, 0.0627131387591362, 0.06098752096295357, 0.12083573639392853, 0.16437432169914246], [0.14771616458892822, -0.12928368151187897, 0.05187615752220154, 0.1266653835773468, 0.04793008416891098, 0.000713206420186907, 0.03695562854409218, -0.04802641645073891, -0.020478002727031708, 0.1801917552947998, -0.11619982868432999, -0.4515978991985321, -0.05508214607834816, 0.041776515543460846, -0.13734716176986694, 0.016594190150499344, 0.04110069200396538, -0.011544491164386272, 0.05736849457025528, -0.04984273761510849], [-0.07748262584209442, 0.03289880231022835, -0.008812407962977886, 0.10410699993371964, 0.01924421638250351, -0.10171599686145782, 0.0034970096312463284, 0.08420786261558533, 0.05816231295466423, 0.11642415821552277, -0.130498468875885, -0.06594479829072952, 0.04075561463832855, 0.0009690132574178278, 0.0713566392660141, -0.09321232885122299, -0.007152455393224955, -0.0024603859055787325, -0.013196024112403393, -0.08861342817544937], [-0.0029900551307946444, 0.058150507509708405, -0.022204279899597168, 0.16365677118301392, 0.006063774228096008, 0.029263855889439583, -0.07445760816335678, -0.06025988981127739, -0.029356809332966805, -0.00929437018930912, 0.013156057335436344, -0.024379797279834747, 0.09338952600955963, 0.04778623208403587, -0.002654044423252344, 0.007485350593924522, 0.006503055337816477, -0.01733141578733921, 0.10199102759361267, 0.00681237643584609], [0.17209714651107788, -0.07120607793331146, 0.05255654454231262, 0.1530231088399887, -0.01584690436720848, 0.07272103428840637, 0.10929892957210541, 0.004974681418389082, 0.24095012247562408, -0.08217572420835495, 0.11890110373497009, -0.25443750619888306, 0.0646829605102539, -0.03816983103752136, -0.12176337838172913, 0.041392982006073, 0.02576044388115406, -0.0034729167819023132, -0.06131641939282417, -0.2835560739040375], [0.04008108377456665, -0.02123202383518219, -0.013313586823642254, 0.021838584914803505, -0.0018308120779693127, 0.0054820324294269085, 0.0035239309072494507, 0.0005650728708133101, 0.018829509615898132, 0.0334218367934227, 0.04593897610902786, 0.05702362582087517, 0.007968450896441936, -0.0018567639635875821, -0.02149091474711895, 0.002835055347532034, -0.005685057491064072, -0.023916197940707207, 0.02140299789607525, -0.020683597773313522], [-0.0768636092543602, -0.0024855833034962416, 0.013017401099205017, 0.0954393744468689, 0.006926380097866058, 0.02984022907912731, -0.06878751516342163, 0.05850771814584732, 0.05771692469716072, 0.045691464096307755, 0.04478214681148529, -0.13167491555213928, 0.0044817677699029446, -0.04129506275057793, 0.0020866708364337683, -0.035089168697595596, -0.03847457468509674, -0.09956879168748856, 0.02447434887290001, 0.02336224354803562], [-0.06389667838811874, 0.1104978546500206, -0.010981416329741478, 0.09393186122179031, 0.03842133283615112, 0.0926724523305893, 0.02631639502942562, 0.19493627548217773, 0.15279559791088104, 0.07772860676050186, -0.012839676812291145, -0.250075101852417, 0.1487887054681778, -0.03825642913579941, 0.001325284712947905, -0.09052637219429016, -0.07843634486198425, -0.05190211907029152, -0.03369852900505066, -0.10702119767665863], [0.044212862849235535, -0.1059005931019783, 0.01067867036908865, 0.23486284911632538, 0.0023774588480591774, -0.06605270504951477, 0.20079050958156586, 0.026947088539600372, -0.000255287392064929, -0.05101088061928749, -0.00039977021515369415, -0.1705038845539093, 0.07539021223783493, -0.015017234720289707, 0.03195827826857567, -0.06739611178636551, -0.029533112421631813, -0.14045904576778412, 0.08676102012395859, 0.02266695722937584], [0.20260989665985107, -0.12415226548910141, 0.025296388193964958, 0.031646762043237686, -0.05012919008731842, 0.03751058503985405, -0.06547832489013672, -0.0683562159538269, 0.34733664989471436, 0.0036660335026681423, 0.09893277287483215, -0.016678674146533012, -0.09783123433589935, 0.06642641872167587, -0.005592687986791134, 0.06656722724437714, -0.004423631355166435, -0.21795867383480072, -0.05581774562597275, -0.21644337475299835], [0.01986038126051426, -0.14822830259799957, -0.16550980508327484, 0.17269982397556305, -0.008013841696083546, -0.009618655778467655, -0.023296216502785683, -0.038836874067783356, 0.08659381419420242, 0.13472880423069, 0.08707635849714279, -0.11930601298809052, 0.05668139457702637, 0.025564413517713547, 0.1184903010725975, -0.03568275645375252, -0.062054116278886795, -0.1420755684375763, 0.059851497411727905, -0.032474715262651443], [0.4354238510131836, -0.3186478912830353, 0.06873864680528641, 0.1161462813615799, -0.17605042457580566, -0.0640990361571312, -0.07986146211624146, -0.08239354938268661, -0.1332663744688034, 0.08226869255304337, 0.07893723249435425, -0.12618273496627808, 0.06704840809106827, 0.08376216888427734, -0.0520978607237339, 0.3047705590724945, 0.12185314297676086, 0.03680019453167915, 0.12100494652986526, -0.025555076077580452], [0.05127691105008125, -0.04020724818110466, 0.0006467964267358184, 0.0765051320195198, 0.015640830621123314, 0.0037261811085045338, -0.011194806545972824, -0.0533800907433033, 0.06347501277923584, 0.12050442397594452, -0.10730137676000595, 0.12289176881313324, -0.025458216667175293, 0.05277789756655693, -0.10112684965133667, 0.003972906619310379, -0.039253514260053635, -0.1585591733455658, -0.08819818496704102, 0.008300688117742538], [-0.06096445396542549, 0.04745486006140709, 0.04475608468055725, -0.010694089345633984, 0.02712077461183071, -0.022643214091658592, -0.01568463444709778, 0.015072740614414215, 0.10008067637681961, 0.03505827859044075, 0.04248278960585594, -0.38348686695098877, -0.06687427312135696, -0.039624497294425964, 0.011457158252596855, -0.06378111988306046, 0.01483101025223732, -0.12465861439704895, 0.012648271396756172, -0.18448780477046967], [-0.0726260244846344, 0.016156623139977455, 0.11598514765501022, 0.11059990525245667, 0.01097839791327715, -0.05550621449947357, 0.07000133395195007, 0.06366661936044693, 0.023780664429068565, -0.053239837288856506, -0.04959284886717796, -0.03744850307703018, -0.054386354982852936, -0.0950566977262497, 0.030642259865999222, -0.00664103776216507, 0.020616916939616203, -0.002549058059230447, -0.03826932981610298, -0.024808892980217934], [0.0484120137989521, -0.009909079410135746, 0.03889516368508339, 0.029424183070659637, -0.02460307814180851, 0.029725350439548492, -0.02700158581137657, -0.03263217955827713, -0.007015693001449108, -0.06408431380987167, 0.05174919217824936, -0.17071373760700226, 0.014698094688355923, 0.009156979620456696, -0.053974833339452744, 0.053899236023426056, 0.010579200461506844, 0.0368354357779026, 0.02143009565770626, -0.06790682673454285], [0.019722428172826767, -0.05478547513484955, -0.029293116182088852, -0.05754132941365242, -0.004861180204898119, -0.023560142144560814, -0.015316957607865334, -0.009408444166183472, -0.05922269448637962, 0.005751557182520628, 0.011296473443508148, -0.2036682367324829, -0.010035602375864983, 0.004368023481220007, -0.09070267528295517, 0.0008447985746897757, 0.02975740283727646, -0.02345847897231579, 0.047985099256038666, 0.0027394446078687906], [-0.11502425372600555, 0.06432840973138809, -0.024511460214853287, 0.1342347413301468, 0.03822134807705879, 0.018251702189445496, 0.07626210898160934, 0.046177659183740616, 0.0943952277302742, 0.0211615152657032, 0.00014977992395870388, -0.12061886489391327, -0.04699985310435295, 0.0033355678897351027, 0.04770507663488388, -0.10904665291309357, -0.014345359988510609, -0.08160434663295746, -0.12116093933582306, -0.025014745071530342], [0.04902863875031471, 0.011442099697887897, 0.07460213452577591, -0.0672202855348587, 0.04001576080918312, 0.002210428938269615, 0.02879335731267929, 0.017642932012677193, 0.07065583765506744, 0.09398700296878815, 0.10388293117284775, -0.316351979970932, 0.0776425153017044, -0.02542860433459282, 0.037825215607881546, -0.12425614893436432, 0.02935900166630745, -0.06066637486219406, 0.015982571989297867, -0.06384092569351196], [-0.11076056212186813, 0.0636669173836708, -0.023001542314887047, 0.06182684749364853, 0.053754087537527084, 0.031617481261491776, 0.11032337695360184, -0.010086910799145699, 0.08608008176088333, 0.07300267368555069, -0.05292860046029091, -0.23113787174224854, 0.031539298593997955, 0.015303147956728935, 0.057372480630874634, -0.12559977173805237, -0.05960443243384361, -0.16802361607551575, -0.041434843093156815, 0.010829598642885685], [0.24501246213912964, -0.044662605971097946, 0.02759016491472721, 0.18472842872142792, -0.01572096347808838, 0.10386182367801666, -0.11373002082109451, -0.039393119513988495, 0.31709834933280945, 0.13857439160346985, -0.05818231776356697, 0.030091261491179466, -0.04484298452734947, 0.053724505007267, 0.11062491685152054, -0.02013017050921917, 0.013234453275799751, -0.1016603484749794, 0.09585344046354294, -0.13337890803813934], [0.859133243560791, -0.04012254253029823, -0.006281598936766386, 0.462786465883255, 0.04280628636479378, 0.1572359949350357, -0.03458897024393082, -0.02498193457722664, 1.0372940301895142, -0.16755984723567963, 0.2771858870983124, -0.32887035608291626, -0.05106867104768753, 0.09969494491815567, 0.5138356685638428, -0.14187568426132202, 0.1735975444316864, 0.09284001588821411, 0.027262847870588303, 0.3019583821296692], [0.14547620713710785, 0.3326931893825531, -0.7412204146385193, -0.1462698131799698, -0.14152878522872925, 0.2339787781238556, 0.025447621941566467, 0.1296469122171402, 0.04104096069931984, -0.24504272639751434, 0.03705215826630592, 0.07796144485473633, -0.18440838158130646, 0.07940277457237244, -0.18657059967517853, -0.22506314516067505, 0.25720465183258057, 0.21752238273620605, 0.4249171018600464, 0.054389838129282], [0.0808793306350708, 0.46764683723449707, 0.19432464241981506, 0.015703406184911728, -0.07432640343904495, 0.04001981392502785, -0.03570643812417984, 0.017879560589790344, 0.13479162752628326, -0.5300701260566711, 0.37113237380981445, 0.010722847655415535, 0.1433359831571579, 0.039772287011146545, -0.7714317440986633, 0.24448634684085846, -0.042588941752910614, -0.6355538368225098, 0.3225526809692383, -0.0681881234049797], [-0.17018644511699677, 0.0015488849021494389, 0.00817966740578413, 0.41524001955986023, 0.012661401182413101, -0.0426863394677639, -0.07100221514701843, -0.0017377231270074844, 0.12874527275562286, 0.08326869457960129, -0.04844124987721443, 0.030896291136741638, -0.07452325522899628, -0.0065917703323066235, -0.02211315557360649, -0.0013440444599837065, 0.048537932336330414, -0.029487881809473038, -0.03182455897331238, -0.019018050283193588], [0.013710979372262955, 0.011601002886891365, 0.03400902450084686, -0.23674193024635315, 0.0331985205411911, -0.07605329900979996, -0.015565524809062481, -0.0337669737637043, 0.11414669454097748, 0.045136477798223495, -0.1675395369529724, -0.08244980126619339, -0.017780397087335587, -0.05555254966020584, 0.05255711451172829, -0.05452956259250641, -0.030748775228857994, -0.025359954684972763, 0.10937337577342987, 0.013381502591073513], [-0.35137420892715454, -0.19298838078975677, 0.21463285386562347, 0.25198012590408325, -0.029468249529600143, 0.47395074367523193, 0.16984541714191437, 0.05777116119861603, 0.08071568608283997, 0.28569674491882324, 0.12957176566123962, -0.16885899007320404, 0.038195423781871796, 0.044595543295145035, 0.04571779817342758, -0.08694183081388474, -0.6537200212478638, -0.10895106941461563, 0.07840202003717422, -0.12196595221757889], [-0.01913611777126789, 0.40226563811302185, 0.48025718331336975, 0.05543062090873718, 0.11062263697385788, -0.15386764705181122, 0.6899105310440063, -0.005176051519811153, -0.058661483228206635, -0.17786982655525208, -0.14388421177864075, -0.030829424038529396, -0.13539905846118927, -0.15091706812381744, 0.25602778792381287, -0.016794998198747635, -0.07123759388923645, 0.15920352935791016, 0.3755737841129303, -0.06865094602108002], [-0.1506069302558899, -0.11371961981058121, -0.007658211048692465, 0.05063248425722122, 0.08496969938278198, -0.20676276087760925, -0.15756003558635712, 0.7916199564933777, 0.023403437808156013, 0.032184869050979614, 0.017199868336319923, 0.02989235520362854, 0.1230558380484581, -0.177242249250412, 0.08547160029411316, -0.14297693967819214, -0.13621731102466583, 0.07000741362571716, 0.18917857110500336, -0.055110521614551544], [-0.4431128203868866, -0.07075100392103195, -0.014024116098880768, 0.22152680158615112, -0.056792907416820526, -0.08276236802339554, -0.019815463572740555, -0.01446752529591322, 0.344882607460022, 0.10220950096845627, -0.1281331479549408, -0.23279419541358948, -0.025663554668426514, 0.013267806731164455, -0.356595516204834, 0.049321986734867096, -0.1354532539844513, 0.16175732016563416, 0.13334935903549194, -0.9223377704620361], [0.29641592502593994, -0.0605972521007061, 0.30117034912109375, -0.17688308656215668, -0.09974303096532822, -0.06093049421906471, 0.13744592666625977, 0.20909078419208527, -0.15952666103839874, 0.48999613523483276, 0.0644986629486084, -0.0008953576325438917, 0.06554801762104034, -0.20485727488994598, -0.30762770771980286, 0.0022426361683756113, -0.18124592304229736, -0.3113289475440979, -0.265850692987442, -0.07536917179822922], [-0.1295587569475174, 0.16493239998817444, -0.06800046563148499, 0.24894721806049347, -0.0869729295372963, -0.1881275475025177, 0.030606405809521675, 0.10349337756633759, -0.29810231924057007, -0.035706013441085815, 0.4464356601238251, 0.14996282756328583, -0.12681135535240173, -0.09729725122451782, -0.045797090977430344, 0.016421345993876457, -0.013408447615802288, 0.28987056016921997, -0.11052028089761734, -0.5433704853057861], [1.0176838636398315, 0.14122755825519562, -0.10611070692539215, 0.3763234615325928, 0.012465340085327625, 0.005236111581325531, 0.1320524960756302, 0.1531025916337967, 0.6131036877632141, -0.15735800564289093, 0.14873270690441132, 0.5330438613891602, 0.1495954692363739, -0.035747360438108444, 0.3775893747806549, 0.04981498420238495, 0.07808013260364532, -0.26452112197875977, -0.10868257284164429, -0.1962011605501175], [0.02260887436568737, 0.07058732211589813, -0.1070680096745491, 0.149968683719635, 0.04919229820370674, -0.04526756703853607, 0.1960519552230835, -0.08849301934242249, -0.0006872972007840872, -0.17244617640972137, 0.04262527450919151, 0.020432813093066216, 0.6181989908218384, -0.08376400917768478, -0.037728965282440186, -0.31220197677612305, -0.14635005593299866, 0.09846031665802002, 0.048839300870895386, -0.1806965321302414], [-0.23161405324935913, 0.0774008259177208, 0.07968517392873764, 0.18509681522846222, -0.01311533059924841, -0.16184549033641815, 0.19421538710594177, 0.20858891308307648, 0.040389787405729294, 0.4117298126220703, -0.011548938229680061, -0.08631326258182526, 0.08120474219322205, 0.5412717461585999, -0.06199850142002106, 0.1582481414079666, 0.505208432674408, -0.4715142846107483, -0.2156720608472824, -0.022311994805932045], [-0.21266959607601166, -0.1374170482158661, 0.4258117973804474, 0.243214413523674, -0.006547261960804462, -0.049312956631183624, -0.07823271304368973, -0.1531212031841278, 0.4633967876434326, 0.14649543166160583, 0.4673324227333069, 0.0844447910785675, -0.0349048487842083, 0.2765553593635559, 0.17157189548015594, -0.8606962561607361, 0.10885933041572571, 0.25606992840766907, 0.24663600325584412, 0.18878042697906494], [0.20560084283351898, 0.21723072230815887, 0.09998848289251328, 0.18131591379642487, -0.007263273932039738, 0.32088616490364075, -0.18910066783428192, -0.0016233071219176054, -0.42328038811683655, -0.1699882298707962, -0.34436362981796265, 0.07441935688257217, 0.006504126824438572, 0.28412115573883057, 0.600712776184082, 0.1842927187681198, 0.288424551486969, -0.16559633612632751, -0.1975618600845337, -0.11242669820785522], [-0.22306272387504578, -0.3171330690383911, 0.043672896921634674, 0.07709485292434692, 0.02816697396337986, 0.6333523392677307, 0.029421420767903328, -0.11935614794492722, 0.03548545390367508, 0.08034271746873856, 0.03449314087629318, -0.06288430839776993, 0.08383387327194214, -0.5621228218078613, -0.1426357477903366, -0.09168583899736404, 0.4508478343486786, -0.4305378496646881, 0.00626678392291069, -0.03515934944152832], [-0.19397762417793274, -0.10786501318216324, 0.3740057051181793, -0.052111633121967316, -0.07187555730342865, 0.10925218462944031, -0.05343222990632057, -0.04754747077822685, -0.14254653453826904, 0.27433153986930847, -0.17318911850452423, 0.011570466682314873, 0.2209344208240509, 0.3591395318508148, -0.16798512637615204, 0.44494351744651794, 0.34930065274238586, 0.6362539529800415, -0.01780005730688572, 0.04458056762814522], [-0.14557920396327972, -0.5406235456466675, -0.35840505361557007, 0.05980220064520836, 0.025116849690675735, -0.0013426291989162564, -0.40101972222328186, -0.1359846144914627, -0.03941446915268898, 0.282548189163208, -0.0882515013217926, -0.012617208063602448, 0.057202164083719254, 0.19670024514198303, -0.21795490384101868, 0.018126893788576126, -0.044703446328639984, -0.14570045471191406, 0.3579968810081482, -0.1517164707183838], [0.12654149532318115, -0.04293274134397507, -2.1352811927499715e-06, -0.09553557634353638, -0.005642828997224569, 0.06647415459156036, 0.2331818789243698, -0.00828622654080391, 0.18193340301513672, 0.026084663346409798, 1.3802871704101562, 0.15292669832706451, 0.34136253595352173, 0.010243617929518223, 0.18665309250354767, 0.00932225864380598, 0.11025344580411911, 0.14355559647083282, 0.42943820357322693, 1.3776642084121704], [-0.07587891072034836, 0.08465314656496048, -0.08773399144411087, 0.16135339438915253, 0.03240799158811569, -0.025009285658597946, 0.0022223133128136396, -0.03150993958115578, -0.10234876722097397, 0.07492959499359131, -0.0891154557466507, -0.30406492948532104, -0.021728157997131348, 0.032064296305179596, -0.006031186319887638, -0.027086840942502022, -0.03599613532423973, 0.06297840923070908, 0.1241578683257103, 0.017867062240839005], [-0.009914814494550228, 0.023663083091378212, 0.012166421860456467, 0.08338391035795212, -0.010749400593340397, 0.0009247088455595076, 0.04790770262479782, 0.03243522346019745, 0.08726851642131805, 0.01338703092187643, 0.03900803253054619, -0.11385447531938553, -0.016991188749670982, 0.015363475307822227, 0.05601363629102707, -0.026370462030172348, -0.06344116479158401, -0.029023976996541023, -0.018040649592876434, 0.007300184108316898], [-0.06656309217214584, 0.05165819078683853, 0.07767700403928757, 0.12037808448076248, 0.013688317500054836, 0.011348623782396317, 0.0033886749297380447, -0.00788966752588749, -0.004661225713789463, -0.017803065478801727, -0.0137633066624403, -0.09081156551837921, -0.02771563082933426, -0.03615943342447281, 0.0512082614004612, -0.001592813292518258, -0.012657126411795616, 0.011983863078057766, 0.01092650555074215, 0.023620473220944405], [-0.27631616592407227, 0.07885211706161499, 0.19867759943008423, 0.34857526421546936, 0.046790048480033875, -0.056128330528736115, 0.048090893775224686, -0.002854730002582073, -0.15824298560619354, -0.09214447438716888, -0.010738453827798367, -0.09849439561367035, -0.018758652731776237, -0.04794549569487572, 0.04015207663178444, 0.002350627677515149, -0.04910240322351456, 0.10136621445417404, 0.01633046381175518, 0.42715802788734436], [0.04073036462068558, -0.023947877809405327, -0.01964719220995903, 0.024454038590192795, -0.0021611868869513273, 0.005057911388576031, 0.0037868658546358347, -0.001348051126115024, 0.019703781232237816, 0.03497357666492462, 0.04816213250160217, 0.0686890035867691, 0.008184622041881084, -0.0006804803851991892, -0.02381620742380619, 0.003783045569434762, -0.005023790057748556, -0.025541558861732483, 0.020554320886731148, -0.018317105248570442], [-0.02067415975034237, -0.031004203483462334, -0.04129669815301895, -0.04495977610349655, -0.00197784835472703, 0.016580015420913696, -0.11462301015853882, -0.033631470054388046, 0.016453031450510025, 0.031913675367832184, -0.025699814781546593, 0.084152951836586, -0.07289791852235794, 0.009612184017896652, -0.019672054797410965, 0.011329682543873787, -0.020139526575803757, -0.01353163830935955, -0.0039266422390937805, 0.03696615621447563], [-0.010081487707793713, -0.013993417844176292, 0.025385379791259766, -0.1133226603269577, 0.01130744256079197, 0.013107340782880783, 0.015522553585469723, 0.01812797598540783, 0.01476467214524746, -0.0013872206909582019, -0.03921211510896683, 0.0896492451429367, -0.07285615801811218, -0.02141697332262993, 0.012380042113363743, 0.0021033622324466705, 0.008865481242537498, -0.02526487037539482, -0.07818371057510376, 0.0008381723891943693], [0.06396201997995377, -0.034196581691503525, 0.005814971402287483, -0.05722162500023842, 0.00017340824706479907, -0.001280002179555595, 0.01258930005133152, 0.04267942160367966, -0.01610594242811203, 0.03663864731788635, -0.05994574725627899, 0.10682692378759384, 0.03676733374595642, -0.00013103951641824096, -0.013750688172876835, -0.01687021739780903, -0.043944235891103745, -0.05117184296250343, 0.06631459295749664, 0.06217588111758232], [0.08039590716362, -0.010499955154955387, -0.06028314679861069, -0.09252754598855972, -0.013285908848047256, 0.0010149107547476888, -0.044976793229579926, 0.0032166859600692987, 0.058179888874292374, 0.04064876586198807, 0.023284612223505974, -0.01901690848171711, -0.04626774415373802, 0.029760457575321198, -0.0022300889249891043, 0.006229497026652098, -0.06273123621940613, -0.04085082188248634, 0.01991584524512291, 0.014562423340976238], [-0.026147086173295975, -0.04886627942323685, -0.014348114840686321, 0.13997869193553925, -0.022795870900154114, 0.0052382005378603935, 0.04703870415687561, 0.04444160312414169, 0.07459664344787598, -0.12320872396230698, -0.057133909314870834, 0.04247636720538139, -0.015798617154359818, -0.030608607456088066, 0.08768336474895477, 0.0533456988632679, 0.0093581173568964, -0.011019086465239525, -0.1058083176612854, 0.09090888500213623], [0.06704821437597275, 0.007197932340204716, 0.11529910564422607, 0.10104731470346451, -0.02270248718559742, 0.0715487003326416, 0.026227904483675957, 0.05968799442052841, 0.14295366406440735, -0.030958011746406555, -0.048435743898153305, 0.029035113751888275, 0.06842927634716034, 0.07293827831745148, 0.1910674124956131, 0.05249068886041641, -0.0156665351241827, -0.09673824161291122, -0.027565237134695053, -0.1502828598022461], [0.493227481842041, -0.025563275441527367, 0.1292347013950348, 0.12231557816267014, 0.02336926944553852, 0.009703552350401878, -0.020055392757058144, -0.02766364812850952, 0.3315288722515106, 0.10328739136457443, -0.05682585760951042, 0.09345457702875137, 0.015745460987091064, 0.019040502607822418, -0.0621647872030735, 0.08551743626594543, -0.047842077910900116, -0.2055247724056244, -0.04405713453888893, -0.33389830589294434], [-0.004415812436491251, -0.053622327744960785, 0.03158101066946983, -0.054174311459064484, 0.010086264461278915, -0.0422196201980114, 0.021279890090227127, 0.001598708680830896, 0.03798290342092514, 0.033572711050510406, 0.0025593501050025225, 0.006522112060338259, 0.005190192721784115, 0.008851349353790283, 0.0026843317318707705, 0.0012720569502562284, -0.01777997612953186, -0.04326239228248596, -0.0339280366897583, -0.08845963329076767], [-0.04284291714429855, -0.08470252901315689, -0.022603336721658707, 0.07444843649864197, -0.009364034980535507, -0.06493964046239853, 0.039530664682388306, 0.026492571458220482, -0.02871726267039776, -0.013933627866208553, -0.01761539839208126, 0.033837057650089264, -0.023811833932995796, 0.0029744128696620464, -0.026258893311023712, -0.01485791988670826, -0.014822196215391159, -0.015215002000331879, -0.1142951250076294, 0.022091951221227646], [0.09218453615903854, -0.00825379230082035, 0.06640220433473587, 0.05761510506272316, 0.005029444117099047, 0.02528328262269497, 0.020905353128910065, -0.001377690234221518, -0.004597761202603579, 0.022165846079587936, 0.026622289791703224, -0.18171952664852142, 0.02807703986763954, -0.011550270020961761, 0.009777071885764599, -0.0028783720917999744, 0.005559396930038929, -0.012424372136592865, 0.0017226862255483866, -0.0063077532686293125], [0.018914801999926567, 0.02594118006527424, 0.06823286414146423, 0.028323957696557045, 0.011024135164916515, -0.0037478057201951742, 0.004458263050764799, 0.01343053113669157, -0.019568705931305885, -0.011860073544085026, -0.0029329073149710894, -0.1602931171655655, 0.003918692469596863, 2.9881010050303303e-05, -0.065373495221138, -0.018799301236867905, 0.021309565752744675, -0.03365614265203476, -0.0024753636680543423, 0.043432220816612244], [-0.002034066943451762, -0.0553511306643486, -0.07212084531784058, -0.12053608894348145, -0.016062205657362938, -0.02485467679798603, -0.03316887095570564, 0.019138798117637634, -0.03402334079146385, -0.00286843441426754, -0.0038268177304416895, 0.06183592975139618, -0.04720010980963707, 0.020004088059067726, -0.029484374448657036, 0.018759069964289665, -0.02338593453168869, -0.005695592146366835, 0.005281117279082537, 0.07726006954908371], [0.00971014704555273, 0.026546623557806015, -0.00674523925408721, -0.055398546159267426, 0.025319429114460945, -0.03163192421197891, -0.01052146591246128, 0.027616729959845543, 0.03973802551627159, 0.08005718886852264, -0.009157310239970684, 0.04676464572548866, 0.022531693801283836, 0.001356562483124435, 0.002112066838890314, -0.06563696265220642, -0.03313717618584633, -0.05857287347316742, -0.034155670553445816, 0.0826210156083107], [-0.13858000934123993, 0.05821221321821213, 0.08015210181474686, -0.03364604711532593, -0.03540307655930519, 0.035322874784469604, 0.03135187551379204, 0.007378716487437487, 0.014471336267888546, -0.11502471566200256, -0.03631077706813812, 0.09518710523843765, -0.03929898142814636, 0.015893107280135155, -0.05757281929254532, 0.014825336635112762, 0.05254120007157326, -0.02734902687370777, -0.08937986940145493, -0.005105397664010525], [-0.0243523046374321, 0.061451930552721024, -0.041403111070394516, -0.08914162218570709, -0.08349979668855667, 0.06489306688308716, -0.0336676649749279, -0.03615197539329529, 0.1122138723731041, -0.11401490867137909, 0.09378624707460403, -0.0031196901109069586, -0.005083033349364996, -0.0007737306877970695, 0.17204657196998596, 0.06618039309978485, 0.10918476432561874, 0.09197212010622025, 0.0802164375782013, 0.04351186379790306]], "rec.bias_ih_l0": [0.3727933466434479, -0.36727771162986755, 0.3072763681411743, 0.1777198165655136, -0.04689481109380722, -0.27481910586357117, -1.1777942180633545, -0.6427386403083801, -0.36956608295440674, -0.34031563997268677, -0.7902793288230896, 0.3601242005825043, -0.8061323165893555, -0.09056740999221802, 0.41987165808677673, 0.19856548309326172, -0.1777075231075287, -0.13777898252010345, -1.2296034097671509, -0.09043532609939575, 0.13457216322422028, 0.9500986337661743, 0.4634287655353546, 0.5609633922576904, -0.0018502167658880353, 0.855841875076294, 1.5957919359207153, 1.234878420829773, 0.458882600069046, 0.8401644825935364, 0.7327125668525696, 0.2307874858379364, 1.261531949043274, 0.7043034434318542, 0.14000093936920166, 0.18753482401371002, 0.8186967372894287, 0.7187594175338745, 1.759877324104309, -0.44413572549819946, -0.1349237710237503, 0.054422080516815186, -0.018345147371292114, 0.16101676225662231, 0.04194255545735359, -0.09204565733671188, -0.005300602875649929, -0.01120193861424923, -0.07981406897306442, 0.008719871751964092, 0.003713665995746851, -0.23567497730255127, -0.04673222452402115, -0.08075140416622162, -0.03693957254290581, -0.036868687719106674, -0.07008911669254303, 0.017426440492272377, -0.020278485491871834, -0.0349695086479187, 0.28395864367485046, 0.3390747904777527, 0.4752790331840515, 0.030684787780046463, -0.04393177106976509, -0.08770163357257843, 0.065977543592453, -0.01706305332481861, 0.29856106638908386, 0.018290312960743904, 0.43740904331207275, 0.06197638437151909, 0.024989107623696327, 0.03586722910404205, 0.44440144300460815, 0.2272290289402008, 0.03128514811396599, 0.31839102506637573, 0.0771510899066925, -0.05261804163455963], "rec.bias_hh_l0": [0.3727933466434479, -0.36727771162986755, 0.3072763681411743, 0.1777198165655136, -0.04689481109380722, -0.27481910586357117, -1.1777942180633545, -0.6427386403083801, -0.36956608295440674, -0.3403152525424957, -0.7902793288230896, 0.3601242005825043, -0.8061323165893555, -0.09056740999221802, 0.41987165808677673, 0.19856548309326172, -0.1777075231075287, -0.13777898252010345, -1.2296034097671509, -0.09046108275651932, 0.13457216322422028, 0.9500986337661743, 0.4634287655353546, 0.5609633922576904, -0.0018502167658880353, 0.855841875076294, 1.5957919359207153, 1.234878420829773, 0.458882600069046, 0.840164303779602, 0.7327125668525696, 0.2307874858379364, 1.261531949043274, 0.7043034434318542, 0.14000093936920166, 0.18753482401371002, 0.8186967372894287, 0.7187594175338745, 1.759877324104309, -0.4440402090549469, -0.13142924010753632, 0.06801334023475647, -0.018399842083454132, 0.15973956882953644, 0.035660941153764725, -0.09196797013282776, -0.00035797778400592506, 0.0019424835918471217, -0.07892909646034241, 0.012259196490049362, 0.004526845645159483, -0.23690903186798096, -0.006937376223504543, -0.07834292948246002, -0.03514385223388672, -0.03530994802713394, -0.056104205548763275, 0.025196414440870285, -0.02007056400179863, -0.043551694601774216, 0.28395864367485046, 0.3390747904777527, 0.4752790331840515, 0.030684787780046463, -0.04393177106976509, -0.08770163357257843, 0.065977543592453, -0.01706305332481861, 0.29856106638908386, 0.018290318548679352, 0.43740904331207275, 0.06197638437151909, 0.024989107623696327, 0.03586722910404205, 0.44440144300460815, 0.2272290289402008, 0.03128514811396599, 0.31839102506637573, 0.0771510899066925, -0.0526159405708313], "lin.weight": [[0.05028729513287544, -1.1425831317901611, -1.5058996677398682, 0.004050466697663069, -0.23228897154331207, 0.294879674911499, 0.26121827960014343, -0.060462117195129395, 0.18705664575099945, 0.32821398973464966, 0.22723077237606049, 0.057552047073841095, 0.18348771333694458, 0.37475308775901794, -0.7356668710708618, -0.11611239612102509, 0.06846784055233002, -0.23862628638744354, -0.8449846506118774, -0.05024334415793419]], "lin.bias": [-0.026144783943891525]}}