{"model_data": {"model": "SimpleRNN", "input_size": 2, "skip": 1, "output_size": 1, "unit_type": "LSTM", "num_layers": 1, "hidden_size": 20, "bias_fl": true}, "state_dict": {"rec.weight_ih_l0": [[-0.0724988803267479, 0.18689130246639252], [0.14006376266479492, -0.05634824559092522], [0.0792972594499588, -0.07932424545288086], [0.021018842235207558, -1.043317198753357], [0.04087148606777191, 0.4522378742694855], [-0.0031928427051752806, -0.08414597064256668], [0.04715289548039436, -0.2196255326271057], [0.16438578069210052, -0.39952564239501953], [-0.39493000507354736, 0.02900916337966919], [0.045449044555425644, -0.014319094829261303], [0.7540488839149475, -0.3153040409088135], [0.025176215916872025, 0.8386117815971375], [0.2990496754646301, -0.36771920323371887], [0.03590729460120201, -0.09860511869192123], [-0.0014151888899505138, 0.0593048557639122], [-0.009128744713962078, 0.02561040222644806], [-0.004800200928002596, -0.044202011078596115], [-0.06405822187662125, 0.04422658309340477], [0.052571967244148254, -0.12343616783618927], [0.4667836129665375, 0.3408931791782379], [-0.04374906048178673, 0.04634711518883705], [-0.10929261893033981, 0.06500213593244553], [-0.013108178041875362, -0.10139027237892151], [0.10084628313779831, -0.4824821949005127], [-0.01735389232635498, 0.018560146912932396], [-0.13524961471557617, -0.015629762783646584], [-0.004545940086245537, 0.05238236486911774], [-0.11821075528860092, 0.16139574348926544], [-0.3801143169403076, 0.2037692666053772], [-0.07223182171583176, -0.048965927213430405], [0.32733532786369324, 0.4270764887332916], [-0.2087392956018448, 0.14234918355941772], [0.2079317420721054, 0.6181307435035706], [-0.10746736824512482, 0.10815255343914032], [-0.05779954046010971, 0.0556417740881443], [-0.006953034549951553, -0.08091908693313599], [-0.05690942704677582, -0.024649539962410927], [-0.15030863881111145, 0.014760448597371578], [-0.16545380651950836, 0.1002313420176506], [0.36190927028656006, -0.02594316378235817], [-0.17636634409427643, 0.14605645835399628], [0.532658576965332, -0.06637869775295258], [0.5070183277130127, -0.019014814868569374], [0.05001277104020119, -1.0134429931640625], [-0.3471596837043762, -0.06769470870494843], [-0.08255501836538315, -0.014653927646577358], [-0.5381069183349609, -0.010580125264823437], [-0.13337931036949158, -0.01144813746213913], [0.020868318155407906, 0.026617510244250298], [0.019505104050040245, 0.009271344169974327], [-0.37243789434432983, -0.03769105300307274], [-0.12605272233486176, -0.12099552154541016], [-0.11959558725357056, 0.0017906059511005878], [0.14731590449810028, 0.001181792700663209], [-0.02949003502726555, -0.03518836945295334], [-0.16760124266147614, -0.08007039874792099], [0.08700462430715561, 0.012148438021540642], [0.03034963458776474, 0.008403214626014233], [0.024861495941877365, -0.02210990898311138], [2.774609327316284, 0.06315821409225464], [-0.0781904086470604, 0.28695148229599], [0.029274573549628258, -0.010733123868703842], [0.07683448493480682, -0.050233177840709686], [-0.1445082724094391, 0.22411222755908966], [0.056347887963056564, -0.4006548821926117], [0.011236919090151787, 0.09154049307107925], [0.02657829411327839, 0.2363044172525406], [0.1527196615934372, 0.12043550610542297], [-0.10960143804550171, 0.6858049631118774], [0.058592069894075394, 0.02584184892475605], [-0.0475146621465683, 0.32715603709220886], [0.04808490350842476, 0.22806252539157867], [-0.6206578016281128, 0.14707811176776886], [0.010371287353336811, 0.01892402209341526], [-0.0017313981661573052, 0.0755460262298584], [-0.006049775052815676, 0.03556976094841957], [0.03504912182688713, 0.07251796871423721], [-0.05631956085562706, 0.07976225763559341], [0.07837122678756714, 0.3561386466026306], [0.2093329131603241, 0.48009708523750305]], "rec.weight_hh_l0": [[-0.0518842451274395, 0.011714544147253036, -0.008345994167029858, -0.2999105751514435, -0.05309569463133812, -0.014995365403592587, 0.002058834070339799, -0.1378118097782135, 0.019945621490478516, -0.02424827590584755, -0.0803302600979805, 0.0022676358930766582, -0.3481883704662323, -0.02023465558886528, -0.04319976270198822, 0.05906778201460838, 0.006276308558881283, -0.017968958243727684, 0.014571355655789375, -0.00783444195985794], [0.08508463948965073, -0.014169525355100632, -0.04692920297384262, -0.038812216371297836, 0.04822167754173279, -0.027138326317071915, -0.005123928654938936, 0.18440979719161987, -0.14224357903003693, 0.0136297307908535, 0.07456017285585403, 0.08206808567047119, 0.07267796248197556, -0.03388272598385811, 0.022228246554732323, -0.001849811989814043, -0.08127375692129135, 0.07930983603000641, 0.07251692563295364, -0.18361127376556396], [-0.05637863650918007, -0.005475091282278299, 0.01062337588518858, 0.04913579672574997, 0.03598861023783684, -0.033122122287750244, 0.028713781386613846, 0.12023595720529556, 0.07455216348171234, 0.059873178601264954, 0.09732358157634735, -0.03840625286102295, -0.06452751904726028, -0.018911072984337807, 0.08385802805423737, -0.03386082500219345, 0.026361802592873573, 0.022444071248173714, 0.035558417439460754, 0.022081954404711723], [-0.07296127825975418, -0.08573692291975021, 0.006243106443434954, -0.6031419038772583, 0.028238827362656593, 0.029242875054478645, 0.05372733995318413, 0.13011184334754944, -0.3175244629383087, 0.03097226656973362, 0.4313265085220337, -0.06456010043621063, -0.0730208232998848, -0.040929004549980164, -0.04019521549344063, 0.04569457098841667, -0.06703929603099823, 0.05594789981842041, -0.0464465357363224, -0.3172621726989746], [0.05920086055994034, -0.02698189951479435, 0.09049193561077118, -0.45131176710128784, 0.09736084192991257, -0.027455275878310204, -0.023851031437516212, -0.14654549956321716, 0.009143666364252567, -0.001034127431921661, -0.10182982683181763, 0.03153769299387932, -0.26858067512512207, -0.015707816928625107, 0.021768944337964058, -0.018121711909770966, 0.010573528707027435, 0.03697190061211586, 0.05116277188062668, -0.016979381442070007], [0.059611327946186066, 0.005152858328074217, 0.011492352932691574, 0.1565965712070465, 0.000999892014078796, -0.0026518695522099733, -0.013633606024086475, 0.06386129558086395, -0.08632788807153702, -0.021685423329472542, 0.04571933671832085, -0.031806912273168564, 0.326284795999527, -0.017719555646181107, -0.02598373033106327, 0.026683274656534195, -0.0051595959812402725, 0.03739187866449356, -0.058842167258262634, -0.046133313328027725], [-0.004433095455169678, 0.029725324362516403, 0.10123136639595032, 0.2614445984363556, -0.02602686546742916, -0.004719213116914034, 0.04013081267476082, 0.014699690975248814, -0.11315035074949265, 0.04872625321149826, -0.12492283433675766, -0.01778586395084858, 0.5229325890541077, -0.007794980891048908, 0.0028432600665837526, 0.06811119616031647, -0.07659929990768433, -0.016554495319724083, -0.10002527385950089, -0.17375384271144867], [0.2610931992530823, -0.14138752222061157, -0.04230913519859314, 0.5029710531234741, -0.1038774624466896, -0.006345775909721851, -0.018262960016727448, 0.04857180267572403, -0.061028800904750824, 0.01377298217266798, -0.34193482995033264, 0.3389081060886383, 0.3762211203575134, 0.01641251891851425, -0.05934727191925049, -0.042454738169908524, -0.0018994027050212026, 0.07888027280569077, 0.05231039226055145, -0.13462324440479279], [0.10483076423406601, -0.08193820714950562, 0.015851933509111404, -0.12451239675283432, -0.05107111111283302, 0.024105090647935867, -0.0346650555729866, 0.05703269690275192, -0.30791789293289185, 0.012746693566441536, 0.04192650318145752, -0.010930372402071953, 0.19013042747974396, 0.0007271348731592298, -0.0892522782087326, 0.16910752654075623, 0.009844898246228695, -0.024912722408771515, -0.040146924555301666, -0.20416852831840515], [-0.02886728197336197, 0.0013421793701127172, -0.011747646145522594, 0.11166855692863464, -0.009198085404932499, 0.025359680876135826, -0.0025199016090482473, 0.07126960158348083, 0.03776809945702553, 0.032391440123319626, 0.005551773589104414, 0.007910718210041523, 0.11091781407594681, 0.054700009524822235, -0.015532709658145905, -0.06218704953789711, 0.04602116718888283, -0.03926924988627434, 0.045817870646715164, -0.03530720993876457], [0.1481572538614273, 0.07910516113042831, 0.010581329464912415, 0.6054365038871765, -0.014722735621035099, 0.005069015081971884, 0.2429349273443222, -0.11750385165214539, -0.3204174339771271, 0.052558813244104385, -0.054181624203920364, 0.03360142558813095, 1.1668161153793335, 0.055596981197595596, 0.10388841480016708, -0.40032368898391724, 0.006063976790755987, 0.141194149851799, -0.22008852660655975, 0.9586570858955383], [0.1445200890302658, 0.05628621578216553, 0.0807306095957756, -0.3288148045539856, 0.06686042994260788, -0.04847448691725731, -0.01880120299756527, -0.1859707236289978, 0.0414828285574913, -0.005994883365929127, -0.2639791965484619, -0.06633062660694122, -0.08115436136722565, -0.016675755381584167, -0.020920520648360252, -0.035275861620903015, 0.012049579061567783, 0.00785303395241499, 0.10435857623815536, 0.035741176456213], [-0.06983499974012375, -0.15453234314918518, -0.06941325962543488, 0.8139113783836365, -0.025219237431883812, 0.09304763376712799, -0.04578595608472824, 0.796977162361145, 0.3677732050418854, -0.08597230166196823, -0.940856397151947, 0.09306912124156952, 0.21031281352043152, 0.0007273339433595538, -0.09942980855703354, -0.019798660650849342, -0.039471209049224854, -0.10218632966279984, -0.11722719669342041, 0.13671617209911346], [0.0342702642083168, -0.017109062522649765, 0.016669778153300285, -0.004971083253622055, 0.02859637886285782, 0.004073113203048706, 0.01852703094482422, -0.03338383138179779, -0.05842101573944092, -0.02383626252412796, -0.015020949766039848, 0.018487216904759407, 0.19880138337612152, 0.03294513374567032, 0.02496832050383091, -0.002035792451351881, -0.023434365168213844, 0.06574616581201553, 0.015428509563207626, -0.025974931195378304], [-0.07517118006944656, -0.01006621029227972, -0.03967638313770294, -0.09303399175405502, -0.0007462945068255067, 0.01058108452707529, 0.017464563250541687, -0.03825317323207855, 0.059373948723077774, 0.002022733213379979, 0.022008467465639114, -0.05900847911834717, -0.1323232650756836, -0.0010781408054754138, 0.011442689225077629, -0.019526731222867966, 0.026438161730766296, -0.025493955239653587, 0.01595953293144703, 0.037408940494060516], [-0.03865188732743263, -0.019138168543577194, 0.02061665989458561, -0.029713504016399384, 0.00331120565533638, 0.0006895515834912658, 0.013360564596951008, -0.050189703702926636, 0.09851304441690445, 0.0012954839039593935, -0.019745687022805214, 0.017548613250255585, -0.12390875071287155, -0.0293474979698658, -0.004412590991705656, -0.0433596670627594, 0.009986918419599533, 0.006293521262705326, -0.01314503327012062, 0.04396233707666397], [0.10672323405742645, 0.03279351070523262, 0.020612264052033424, 0.019573282450437546, -0.03673417493700981, -0.05025380849838257, 0.03238392621278763, 0.00866706296801567, -0.07851576060056686, 0.04044627025723457, -0.011180082336068153, 0.05636047199368477, 0.16386958956718445, -0.006379186641424894, 0.003926921635866165, 0.06156078353524208, -0.0003711724712047726, 0.03365672007203102, 0.009922593832015991, -0.0842878594994545], [0.03659161552786827, -0.009950654581189156, 0.01084463857114315, -0.06104246899485588, 0.02898155339062214, 0.004680128302425146, 0.005631890147924423, -0.011539160273969173, 0.08464182168245316, -0.04818553477525711, -0.03101920895278454, -0.03295476734638214, 0.08181194216012955, 0.017300687730312347, -0.00807893741875887, 0.009988032281398773, -0.03160762041807175, -0.006514077540487051, 0.028109582141041756, 0.007513356860727072], [0.20024242997169495, -0.04287506639957428, 0.07884812355041504, 0.1628953069448471, 0.037043604999780655, -0.011479138396680355, 0.000685386301483959, 0.20680281519889832, -0.344939261674881, -0.020357949659228325, -0.04453502222895622, 0.021558109670877457, 0.3712378442287445, -0.044798336923122406, -0.06181716546416283, 0.0776725485920906, 0.06427903473377228, 0.018964121118187904, -0.005426441319286823, -0.26570841670036316], [0.1229739859700203, 0.029808642342686653, 0.09290279448032379, -0.7162894606590271, 0.0963226929306984, -0.06462325900793076, 0.0956004410982132, 0.1751415878534317, -1.2572836875915527, 0.15668196976184845, 1.2018404006958008, 0.028290506452322006, -0.10704267770051956, -0.04310639947652817, 0.019115664064884186, 0.02984543889760971, 0.02259187586605549, 0.14632996916770935, 0.017129065468907356, -0.2915981709957123], [0.08404579013586044, 0.06370601058006287, -0.013479769229888916, -0.07213915884494781, -0.2233898788690567, -0.06022678315639496, -0.019435152411460876, -0.09569676220417023, -0.22232599556446075, -0.001925407093949616, -0.17299465835094452, 0.18072719871997833, -0.4248342216014862, 0.03551279753446579, -0.09835377335548401, 0.1004253700375557, 0.016775216907262802, -0.07350895553827286, 0.0193890742957592, 0.018349891528487206], [0.13810937106609344, 0.03163669630885124, 0.03415349870920181, 0.06423315405845642, 0.0171026811003685, 0.08018521219491959, 0.023655084893107414, -0.20437397062778473, -0.08055565506219864, -0.029358582571148872, 0.30380532145500183, -0.10164030641317368, -0.42756372690200806, -0.092162124812603, -0.08477477729320526, 0.012557012028992176, 0.07929035276174545, -0.07162731885910034, 0.10686054825782776, 0.010407594032585621], [-0.021969487890601158, -0.061566635966300964, -0.07287714630365372, 0.0053007942624390125, 0.04290110245347023, -0.02354351617395878, 0.01763368770480156, 0.01485435850918293, -0.036178022623062134, 0.019137000665068626, 0.18844689428806305, 0.042695749551057816, -0.24909816682338715, 0.037657275795936584, 0.03917510062456131, 0.05907997861504555, 0.053906526416540146, -0.03282982483506203, 0.04202302172780037, 0.045711539685726166], [-0.04073062166571617, -0.10290729254484177, -0.027994662523269653, -0.7994412183761597, -0.004502858966588974, -0.007482966408133507, 0.016190141439437866, 0.004158042836934328, -0.39304307103157043, 0.0030578356236219406, 0.26785793900489807, 0.07121632248163223, -0.6646614074707031, -0.012038913555443287, -0.06554176658391953, 0.050388701260089874, -0.07647804915904999, 0.0625758245587349, 0.017926111817359924, -0.1945318877696991], [-0.07237079739570618, -0.06900789588689804, -0.01235873531550169, 0.0014150020433589816, 0.06592245399951935, 0.05300094187259674, -0.0313892588019371, -0.26331064105033875, 0.10265815258026123, -0.04863904044032097, 0.03168543055653572, -0.23193490505218506, -0.2156888246536255, 0.0005881027318537235, 0.013442467898130417, -0.054553136229515076, -0.03105953335762024, -0.041602879762649536, 0.0563676618039608, 0.0918804481625557], [-0.16649022698402405, -0.043012585490942, -0.04419006034731865, -0.1290956437587738, -0.009878845885396004, -0.007985547184944153, 0.05601896345615387, -0.14648716151714325, 0.08474797755479813, 0.007297826930880547, 0.12571106851100922, -0.04576970264315605, -0.5382311344146729, -0.0068201422691345215, -0.0043210056610405445, 0.017203565686941147, 0.022781336680054665, -0.03537897765636444, 0.012281505391001701, 0.03424626216292381], [-0.20294085144996643, 0.023821573704481125, -0.0339895598590374, -0.41099727153778076, 0.020648185163736343, 0.003993820399045944, -0.008658599108457565, -0.13540859520435333, 0.18943218886852264, 0.03467279300093651, 0.05624445155262947, -0.015008875168859959, -0.921150267124176, -0.019337600097060204, 0.04182790219783783, 0.007919332943856716, -0.000986811239272356, 0.023529555648565292, -0.011372891254723072, -0.05257297307252884], [0.9881777763366699, -0.2855735719203949, 0.015220568515360355, -0.5377059578895569, 0.09191957116127014, 0.026600021868944168, -0.04722870513796806, -0.07489287853240967, 0.14145807921886444, 0.006322403438389301, 0.4911009669303894, 0.2428194284439087, -0.9978845715522766, -0.017858829349279404, -0.016556477174162865, -0.023916492238640785, -0.022534983232617378, -0.02470211684703827, -0.11428298056125641, -0.5298417806625366], [0.48591065406799316, -0.05142879858613014, 0.10483376681804657, -0.2839502990245819, -0.02307179756462574, 0.11509165912866592, -0.09589842706918716, -0.32800692319869995, -0.02672506310045719, -0.05298326909542084, 0.014565658755600452, 0.21760448813438416, -0.8485070466995239, -0.028465906158089638, -0.23278217017650604, 0.19341319799423218, -0.023346591740846634, -0.006232784129679203, -0.14753392338752747, -0.12390094250440598], [-0.16762402653694153, 0.03500786051154137, 0.001027704798616469, -0.12056688964366913, -0.017525721341371536, 0.04256211221218109, 0.023556208238005638, -0.10264024883508682, 0.06175539642572403, 0.02422729693353176, 0.07157628983259201, 0.024904515594244003, -0.36691686511039734, 0.05283864960074425, 0.022228093817830086, -0.0773150622844696, -0.012655328027904034, -0.07832250744104385, 0.08982628583908081, 0.12232183665037155], [-0.533722996711731, -0.09438789635896683, 0.0013715059030801058, -0.7448655962944031, 0.1309596449136734, -0.004452557768672705, 0.1571698635816574, -0.32730481028556824, -0.36100509762763977, 0.0621500238776207, 0.4852074384689331, -0.24948088824748993, -0.8894158601760864, 0.04379355534911156, 0.17433631420135498, 0.10008929669857025, 0.0028176349587738514, -0.0006739221862517297, -0.02499961294233799, -0.0511469766497612], [-0.11752484738826752, -0.15027973055839539, -0.07325234264135361, -0.18283861875534058, 0.09814386069774628, 0.01606750302016735, 0.02337082102894783, -0.15484142303466797, 0.05168752372264862, 0.01781982183456421, -0.11677856743335724, 0.30133768916130066, 0.24489101767539978, -0.0058122905902564526, -0.04264342784881592, 0.00365543644875288, -0.011263671331107616, 0.042086657136678696, 0.07730863988399506, -0.09089712053537369], [-0.7223548293113708, 0.22755181789398193, -0.014642886817455292, -0.8671103119850159, 0.07851533591747284, -0.20400570333003998, 0.08946730941534042, 0.44223493337631226, -1.211538553237915, 0.14581049978733063, 0.4754837453365326, -0.4457184076309204, -0.3385735750198364, 0.034801680594682693, 0.08048263192176819, 0.07003282010555267, -0.06639397144317627, 0.136511892080307, 0.11423399299383163, 0.406099408864975], [-0.1248743087053299, -0.02733362838625908, -0.04365850239992142, -0.08505242317914963, -0.016109874472022057, 0.0030230225529521704, 0.04837808385491371, -0.2456902116537094, 0.21826496720314026, -0.043409328907728195, 0.03533368930220604, -0.00030171641265042126, -0.3352082073688507, 0.0606541708111763, 0.06241443008184433, -0.07278478145599365, 0.01611415296792984, -0.023991450667381287, 0.07444822788238525, 0.06988248229026794], [-0.029692530632019043, -0.08379822969436646, -0.07698695361614227, -0.0658012181520462, 0.013769987970590591, -0.0018258196068927646, -0.01370764896273613, -0.04419776424765587, 0.05140059068799019, -0.009130410850048065, 0.041057560592889786, 0.029895013198256493, -0.03608383610844612, 0.06390330940485, -0.04015061631798744, -0.052476439625024796, 0.021025365218520164, -0.024574385955929756, 0.022381555289030075, 0.04664858430624008], [-0.018291255459189415, -0.04189576953649521, 0.030383413657546043, 0.18709272146224976, 0.022138191387057304, 0.0002544193994253874, 0.0009673182503320277, 0.008299893699586391, 0.09297490119934082, 0.029775451868772507, -0.0818205326795578, 0.05760444328188896, -0.05732794478535652, -0.016474071890115738, -0.03363128378987312, -0.05174054577946663, -0.034171197563409805, -0.019800368696451187, 0.0003115404397249222, 0.09938660264015198], [-0.10560302436351776, -0.002258117077872157, -0.07694258540868759, 0.06891937553882599, -0.07019113749265671, -0.014083083719015121, 0.08016637712717056, -0.03675937280058861, 0.07203863561153412, -0.026637867093086243, 0.13997457921504974, -0.024811092764139175, -0.5267762541770935, -0.0016373537946492434, 0.012976143509149551, -0.02220998890697956, 0.005645842291414738, -0.03184127062559128, 0.021406345069408417, 0.058829501271247864], [-0.09265017509460449, -0.027260376140475273, -0.026059122756123543, 0.09828092902898788, -0.03305650129914284, -0.02183142490684986, 0.031112730503082275, -0.0732598751783371, 0.14912863075733185, -0.06536095589399338, 0.016360556706786156, 0.011511635966598988, -0.1958734393119812, 0.026020511984825134, -0.06032828986644745, -0.020204881206154823, -0.09178543090820312, -0.016245920211076736, 0.050012972205877304, 0.04117673635482788], [-0.4602518081665039, -0.047927919775247574, -0.14918072521686554, -0.0042957728728652, 0.05595016852021217, 0.03455156087875366, -0.0390743725001812, -0.1176411584019661, 0.366731733083725, -0.022266391664743423, 0.13968005776405334, -0.009924443438649178, -0.8869331479072571, 0.036156050860881805, -0.01220353227108717, -0.0237558726221323, -0.008856192231178284, -0.05023965984582901, 0.028601745143532753, -0.027580581605434418], [0.15928484499454498, 0.03857691213488579, -0.0659666657447815, -0.11023334413766861, -0.11144377291202545, 0.015155359171330929, 0.0366281233727932, 0.08480367809534073, -0.3538012206554413, 0.01525594387203455, 0.5796129703521729, -0.08078548312187195, -0.3389202952384949, 0.03190743923187256, -0.02997204288840294, 0.002996207680553198, 0.007668401580303907, -0.019153043627738953, -0.09600139409303665, -0.3751223385334015], [0.10268141329288483, 0.25515082478523254, -0.17365993559360504, -0.35526329278945923, 0.2442750632762909, -0.00769463274627924, 0.15644320845603943, -0.038760390132665634, 1.1293772459030151, -0.090024434030056, 0.6831309795379639, -0.07548274099826813, -1.2690606117248535, 0.0038824412040412426, 0.23416033387184143, -0.14260154962539673, -0.02849123626947403, -0.10213358700275421, -0.10337332636117935, 1.046823501586914], [0.003972599282860756, 0.0761575847864151, -0.5309138894081116, -0.12489679455757141, -0.9674401879310608, 0.26118043065071106, -0.06692899018526077, -0.02995629608631134, 0.013047347776591778, -0.15667922794818878, 0.040198586881160736, -0.026748724281787872, 0.03810333460569382, 0.21611030399799347, -0.24630461633205414, -0.13753964006900787, 0.06807216256856918, -0.11544756591320038, 0.5978014469146729, -0.12548772990703583], [0.04183715954422951, 0.40342649817466736, 0.3241812288761139, -0.057871025055646896, 0.40971317887306213, 0.026322506368160248, 0.0419316366314888, -0.042439453303813934, 0.10996975004673004, -0.5758619904518127, 0.1544872522354126, -0.0015269519062712789, 0.14524991810321808, 0.06257312744855881, -0.7454677224159241, 0.23886390030384064, -0.11525731533765793, -0.6610496044158936, 0.004737547133117914, -0.08360304683446884], [0.16519536077976227, 0.2571304738521576, -0.06509426981210709, 0.5080838203430176, 0.3629434406757355, -0.056992627680301666, -0.06977061927318573, 0.33589306473731995, -0.2115899622440338, 0.052410632371902466, 0.1948607861995697, 0.0784059464931488, -0.08094465732574463, 0.07170946896076202, 0.07371845841407776, -0.24410384893417358, -0.035484179854393005, 0.1368931531906128, -0.07249920070171356, -0.191231369972229], [0.6691272854804993, 0.3638628125190735, 0.2424526959657669, 0.13474109768867493, 0.6879017353057861, -0.09641582518815994, 0.06931440532207489, -0.17554785311222076, -0.023543044924736023, 0.09026480466127396, 0.017793098464608192, -2.01930570602417, 0.003377805929630995, -0.04347286745905876, 0.017163146287202835, -0.10995122790336609, -0.07189307361841202, 0.15603528916835785, -0.0366581454873085, -0.016396870836615562], [0.041839245706796646, -0.07361070811748505, 0.02915339730679989, 0.02242281287908554, -0.20216140151023865, 0.6128641366958618, 0.18541982769966125, -0.008008887059986591, -0.07305747270584106, 0.2521796226501465, -0.10782603919506073, -0.010779679752886295, 0.04789726063609123, 0.5015496015548706, -0.016453474760055542, -0.0324740968644619, -0.7854188680648804, -0.028986118733882904, 0.10903886705636978, -0.1692204624414444], [0.06436769664287567, 0.7754179239273071, 0.43324440717697144, 0.10394492000341415, 0.07804133743047714, -0.2780471444129944, 0.5944469571113586, -0.030387723818421364, 0.05724635720252991, -0.07544291019439697, -0.06315628439188004, 0.024580974131822586, -0.16425594687461853, -0.14818739891052246, 0.28309401869773865, 0.07191988080739975, 0.17810627818107605, 0.23488187789916992, 0.7419270277023315, 0.08876700699329376], [-0.9129673838615417, 0.1867363005876541, 0.03545830026268959, 0.141027569770813, 0.06747564673423767, -0.007956089451909065, 0.040095601230859756, 0.5099458694458008, -0.6007928848266602, 0.04780005291104317, -0.034257907420396805, -0.4458509087562561, -0.03671247884631157, -0.04746550694108009, -0.016673605889081955, 0.28338250517845154, 0.008963361382484436, 0.05426117777824402, 0.0460066944360733, 0.19778573513031006], [-0.5019417405128479, -0.016509128734469414, 0.03530321642756462, 0.12982870638370514, -0.10583886504173279, -0.07415562868118286, -0.12743110954761505, -0.02502351440489292, 0.26774999499320984, -0.023848315700888634, -0.4804840385913849, -0.17725959420204163, -0.5121641159057617, -0.03492113947868347, -0.03268367797136307, 0.2490861564874649, -0.03860504552721977, -0.005751718766987324, 0.14825333654880524, -0.9949151277542114], [0.05939546972513199, -0.12863239645957947, 0.507125198841095, 0.023730235174298286, -0.19741883873939514, -0.1704128086566925, 0.10520615428686142, 0.0608518123626709, -0.006704137194901705, 0.5202161073684692, 0.05921283736824989, -0.003307811450213194, 0.19884122908115387, -0.5715510249137878, 0.08410421013832092, 0.38899967074394226, -0.6768847107887268, -0.18898026645183563, -0.0691983699798584, 0.0695648193359375], [0.21417440474033356, -0.0841459333896637, 0.08895624428987503, 0.1501903086900711, 0.17825385928153992, -0.026347097009420395, -0.06046483293175697, -0.13442523777484894, 0.06746900081634521, -0.05202661454677582, 0.25839829444885254, 0.0714169517159462, -0.39734938740730286, -0.06310447305440903, -0.03410514071583748, 0.08954647928476334, 0.014379077591001987, 0.009838893078267574, 0.08924870193004608, -1.0291231870651245], [1.9242451190948486, -0.1461474746465683, 0.11205697804689407, 0.0005022474797442555, 0.032818350940942764, -0.01805785298347473, -0.04450806602835655, 0.6215510368347168, 0.7793108224868774, -0.10667464882135391, 0.17434033751487732, 1.7888764142990112, -0.530369758605957, -0.0019239891553297639, 0.04181136190891266, -0.45557254552841187, 0.05183659493923187, 0.018773872405290604, 0.16827133297920227, -0.5496983528137207], [0.3287492096424103, -0.16175439953804016, -0.05215884745121002, 0.1350385993719101, 0.05911199748516083, 0.03581317514181137, 0.23591658473014832, -0.3678896129131317, 0.36190688610076904, -0.19090785086154938, 0.20840004086494446, 0.10691331326961517, 0.6855437755584717, 0.007229049690067768, 0.05693370848894119, -0.21899569034576416, 0.10837630182504654, -0.08053646981716156, 0.280888170003891, 0.10432393848896027], [0.0463242307305336, -0.17092213034629822, -0.11997252702713013, 0.011466305702924728, -0.07308034598827362, -0.5979207158088684, 0.1738869994878769, -0.03306504711508751, 0.0010310462675988674, 0.6403110027313232, 0.016133975237607956, 0.007590123917907476, 0.05925104767084122, 0.5837762951850891, -0.14194348454475403, 0.0042837923392653465, 0.34381914138793945, -0.454032301902771, -0.10808398574590683, -0.019030803814530373], [-0.11261682212352753, -0.2950401306152344, 0.8074321746826172, 0.0010977849597111344, -0.37994804978370667, -0.010835699737071991, -0.040210120379924774, -0.005940236616879702, -0.1428375244140625, -0.12728995084762573, -0.1051274985074997, -0.00951071921736002, -0.14566898345947266, 0.2108476310968399, 0.28873732686042786, -0.7765615582466125, 0.07493320107460022, -0.24989284574985504, 0.05210361257195473, -0.2277824580669403], [0.10634409636259079, 0.26457828283309937, -0.22488245368003845, 0.12445822358131409, 0.4366249144077301, 0.0018206745153293014, -0.08687936514616013, -0.1086324155330658, -0.520772397518158, -0.32908037304878235, -0.35463014245033264, 0.06976080685853958, 0.17724213004112244, 0.0051748063415288925, 0.7729498147964478, 0.40373414754867554, -0.0745496079325676, -0.6027246713638306, -0.015502765774726868, -0.40187057852745056], [-0.017201365903019905, -0.11145881563425064, 0.016610650345683098, -0.02831690013408661, -0.14799204468727112, 0.7152358293533325, -0.06512629985809326, -0.00974324718117714, 0.10792775452136993, 0.5881556272506714, 0.031257081776857376, -0.00743913184851408, -0.09559239447116852, -0.46070072054862976, -0.10065723955631256, 0.057491086423397064, 0.5775176882743835, -0.4108392596244812, 0.3044849634170532, 0.061576809734106064], [0.06406968832015991, -0.18882928788661957, 0.5659862160682678, -0.061589132994413376, -0.29933565855026245, 0.06703650951385498, -0.07204180210828781, 0.22686617076396942, 0.062225110828876495, -0.21114833652973175, 0.12850481271743774, 0.010713806375861168, 0.16976909339427948, 0.5631842613220215, 0.1290915310382843, 0.6549032330513, 0.37323179841041565, 0.32186588644981384, -0.05873730033636093, 0.1895337849855423], [-0.004808703903108835, -0.3174702227115631, -0.11501971632242203, -0.026745136827230453, 0.27785995602607727, -0.10419280081987381, -0.8442161679267883, -0.08193999528884888, 0.05554976686835289, 0.027986329048871994, 0.05635334923863411, -0.016205590218305588, -0.030706439167261124, 0.13022078573703766, -0.01882297545671463, -0.03855755925178528, -0.2469453662633896, -0.06951488554477692, 0.3824620842933655, 0.011889608576893806], [-0.15258444845676422, -0.004729158245027065, -0.012845085002481937, -0.03701743483543396, 0.04087792709469795, 0.029818296432495117, 0.09013618528842926, 0.012778260745108128, 0.43154677748680115, -0.04063711687922478, 0.5016565918922424, -0.0010528367711231112, 1.0546118021011353, 0.010802162811160088, 0.04750499501824379, 0.025594789534807205, 0.01660185493528843, -0.037832606583833694, -0.024854036048054695, 0.6677233576774597], [-0.10407049208879471, 0.03303181380033493, -0.005978721659630537, -0.36679238080978394, -0.07877796143293381, -0.011350645683705807, 0.00019261849229224026, -0.1587056815624237, 0.04582488164305687, -0.021002551540732384, -0.06970734894275665, -0.0905395895242691, -0.40075060725212097, -0.010621441528201103, -0.02550419047474861, 0.04237428680062294, 0.002541690832003951, -0.013326486572623253, 0.012689655646681786, -0.022409169003367424], [-0.027340322732925415, -0.039772383868694305, 0.04707331210374832, -0.14349015057086945, 0.10562580078840256, -0.033324167132377625, 0.012706357054412365, 0.050489045679569244, -0.05521448701620102, 0.09884078800678253, 0.00882833730429411, -0.05635995790362358, -0.2701382040977478, 0.000512047263327986, 0.028653111308813095, -0.08101716637611389, 0.00977103691548109, 0.07503992319107056, 0.04936772957444191, -0.08618487417697906], [0.01683717407286167, 0.005278171971440315, 0.022601353004574776, 0.04654957354068756, 0.017695780843496323, -0.03332185745239258, 0.02306237630546093, 0.11191825568675995, 0.07224045693874359, 0.04467412084341049, 0.0605638362467289, 0.03816688805818558, -0.08378336578607559, -0.005554258357733488, 0.002575160935521126, -0.012943046167492867, 0.02693554200232029, 0.03899582475423813, 0.03460608795285225, 0.038193635642528534], [0.05789833143353462, -0.10669824481010437, -0.018060071393847466, -0.4650336802005768, -0.16470932960510254, 0.01535885315388441, -0.037898577749729156, -0.09641718119382858, -0.051448699086904526, -0.11338575184345245, 0.42159268260002136, 0.12874004244804382, -0.3911927044391632, -0.021238774061203003, 0.015608136542141438, 0.15318737924098969, -0.03250747174024582, -0.06392164528369904, 0.07828547805547714, -0.19418592751026154], [-0.08363687992095947, 0.05127110332250595, 0.001901115057989955, 0.6798633933067322, -0.07702004909515381, -0.02779027260839939, 0.12167506664991379, 0.1174042820930481, 0.05488235130906105, -0.06326907873153687, -0.0649331584572792, 0.32853376865386963, 0.23210409283638, 0.02143152244389057, 0.0394524484872818, 0.05102301016449928, -0.020026810467243195, -0.05368760973215103, 0.09640398621559143, -0.027233537286520004], [0.045818526297807693, -0.008410821668803692, -0.014149922877550125, -0.0043657501228153706, -0.0051813879981637, 0.0008942624554038048, -0.0028424509800970554, 0.012524919584393501, -0.0154398949816823, 0.025947730988264084, -0.1104307696223259, 0.05589637905359268, 0.0402291864156723, 0.02670832723379135, -0.01645250804722309, -0.023576881736516953, 0.0140217961743474, -0.0015179343754425645, -0.04940926283597946, 0.028798673301935196], [0.07646851241588593, -0.013420884497463703, 0.008065692149102688, -0.09338043630123138, 0.006904334295541048, -0.021633079275488853, -0.024737421423196793, -0.07951003313064575, 0.1363222748041153, -0.012297713197767735, -0.2099974900484085, 0.0003837259719148278, 0.06494823098182678, -0.010736297816038132, 0.029742823913693428, -0.07571054995059967, 0.012306522578001022, -0.009965910576283932, 0.017823118716478348, -0.02053593285381794], [-0.11382326483726501, 0.03955318033695221, 0.035011205822229385, 0.04685544595122337, 0.09294303506612778, 0.0251749400049448, -0.09928739815950394, -0.51854008436203, -0.10918567329645157, 0.03131232410669327, -0.16296185553073883, -0.0027165806386619806, 0.007755616679787636, 0.012562825344502926, -0.02177639678120613, -0.11424985527992249, -0.04476359114050865, -0.007429375778883696, -0.058339256793260574, 0.15471398830413818], [0.15567709505558014, -0.07594277709722519, 0.015105887316167355, -0.5641611814498901, 0.1064806655049324, 0.043933406472206116, -0.003771938616409898, -0.21842509508132935, 0.04558422416448593, 0.036946553736925125, 0.037774574011564255, -0.4398423731327057, -0.20266684889793396, -0.0854053944349289, -0.018795836716890335, -0.10913076996803284, 0.053515322506427765, 0.034714099019765854, -0.013567475602030754, -0.08326274901628494], [-0.053217433393001556, 0.015912752598524094, 0.03682044520974159, 0.045275501906871796, 0.002241488778963685, 0.034828610718250275, 0.002169746905565262, 0.04155098646879196, 0.009855691343545914, 0.031473174691200256, -0.03193206712603569, -0.03675264120101929, -0.000253909092862159, 0.05579783022403717, 0.08887728303670883, -0.039139363914728165, 0.07438401132822037, -0.015218699350953102, 0.03943173959851265, 0.020251745358109474], [0.5305787324905396, -0.01844535581767559, 0.09267678111791611, -0.44213399291038513, 0.13833728432655334, 0.0032984933350235224, 0.008347010239958763, -0.1244930699467659, 0.1610357165336609, 0.02032911404967308, -0.4864819645881653, 0.25004827976226807, -0.20905546844005585, 0.08245798200368881, -0.17348389327526093, 0.007736539002507925, -0.029621746391057968, 0.13810651004314423, -0.1317199468612671, 0.05509314313530922], [0.06360235065221786, -0.14347058534622192, 0.05077733099460602, -0.3526649475097656, 0.20088087022304535, -0.04700980708003044, 0.019536366686224937, -0.1641838550567627, -0.006874419748783112, 0.06920032203197479, -0.4591088891029358, -0.011479740962386131, 0.25043103098869324, -0.015191146172583103, -0.0603492334485054, 0.007117207627743483, -0.006590745877474546, 0.04160434380173683, 0.11999876797199249, -0.075851209461689], [-0.7420925498008728, -0.09743958711624146, 0.009556805714964867, -0.13681131601333618, 0.1612703651189804, 0.06690296530723572, 0.03540167212486267, 0.2915428876876831, 1.0477581024169922, -0.1210930347442627, -0.40157073736190796, -0.0013371871318668127, -1.3610962629318237, 0.039238862693309784, 0.12550660967826843, 0.1552475392818451, 0.04312587529420853, -0.14186866581439972, -0.0226316936314106, 0.30336278676986694], [-0.018360143527388573, -0.02242671512067318, -0.010918314568698406, -0.06630028784275055, 0.004117900971323252, 0.022365979850292206, 0.01605282351374626, -0.026346035301685333, -0.04949086531996727, -0.04270494729280472, -0.07208738476037979, 0.01052476093173027, 0.013110685162246227, 0.016428032889962196, 0.0666331946849823, 0.026208586990833282, -0.04970819130539894, 0.010964776389300823, 0.0125235915184021, 0.011062751524150372], [-0.0695515051484108, 0.004131270572543144, -0.03301097825169563, -0.10192877799272537, -0.012996780686080456, 0.012181896716356277, 0.015524857677519321, -0.04352675750851631, 0.05552201345562935, -0.008283480070531368, 0.011179654859006405, -0.02499064803123474, -0.1458023339509964, 0.0012697267811745405, 0.007360914256423712, -0.03035394847393036, 0.0233281459659338, -0.024031352251768112, 0.017322540283203125, 0.040854379534721375], [-0.0649440586566925, -0.03133354336023331, 0.011478845030069351, -0.03923683241009712, -0.003232852555811405, 0.00017795266467146575, 0.013039474375545979, -0.05429074168205261, 0.09050581604242325, 0.010996163822710514, -0.028390832245349884, 0.056791286915540695, -0.13743358850479126, -0.028609776869416237, 0.01084707211703062, -0.05581507831811905, 0.01177783403545618, -0.0018693377496674657, -0.012666446156799793, 0.039562176913022995], [0.012427815236151218, 0.04630278795957565, 0.020309442654252052, -0.09516771137714386, -0.03380301594734192, -0.01616610214114189, 0.020612018182873726, -0.039111051708459854, -0.005480692721903324, 0.04027010127902031, -0.055037450045347214, -0.0337100625038147, -0.008189181797206402, 0.007025543134659529, 0.026066120713949203, -0.0028507313691079617, 0.0014562271535396576, -0.0037933115381747484, -0.004999327939003706, 0.0092046819627285], [-0.04022104665637016, -0.009721716865897179, 0.056669991463422775, -0.10410947352647781, 0.01107779424637556, 0.019786065444350243, 0.006881320383399725, -0.02303062565624714, 0.08663134276866913, -0.014788307249546051, -0.04511056840419769, -0.024541586637496948, 0.017250625416636467, 0.006571297999471426, -0.029485376551747322, -0.00011586293840082362, -0.03943820670247078, -0.008274092338979244, 0.025082258507609367, 0.022748464718461037], [-0.028084024786949158, -0.03141942247748375, 0.01569969393312931, -0.3448391258716583, 0.04698936641216278, 0.047790903598070145, 0.010908515192568302, -0.02567441575229168, -0.18361224234104156, -0.00839495100080967, -0.09167467802762985, 0.07803833484649658, -0.23647505044937134, 0.024417195469141006, -0.008029968477785587, -0.01392609253525734, -0.04870571196079254, 0.015664976090192795, 0.02580862306058407, 0.05549337714910507], [0.28650763630867004, -0.07292966544628143, 0.08321382105350494, -0.4209847152233124, 0.17564080655574799, -0.01848277822136879, -0.005772857461124659, 0.022460609674453735, -0.08125177025794983, 0.009294955059885979, 0.5229278206825256, 0.27857938408851624, -0.23616348206996918, -0.014797228388488293, 0.060593392699956894, -0.07656825333833694, 0.04867115244269371, 0.08662959188222885, 0.14319786429405212, -0.28507712483406067]], "rec.bias_ih_l0": [0.5303517580032349, -0.30911386013031006, 0.3092009723186493, -0.35603561997413635, 0.4506387412548065, -0.6524942517280579, -1.4142839908599854, -1.1054997444152832, -0.8024452328681946, -0.17896948754787445, -1.071596384048462, 0.2898595631122589, -1.3191947937011719, -0.40010306239128113, 0.37952253222465515, 0.3542703688144684, -0.419841468334198, 0.0268962774425745, -1.3174797296524048, -0.48094508051872253, 0.22935007512569427, 0.7131538987159729, 0.37167927622795105, 0.4761071503162384, 0.6227011680603027, 1.146445870399475, 1.8016599416732788, 1.2824172973632812, 0.8648492097854614, 0.7612806558609009, 1.3396220207214355, 0.03924105688929558, 1.5143342018127441, 0.8939841985702515, 0.2239992469549179, 0.23740436136722565, 0.9264373779296875, 0.543590784072876, 1.7946362495422363, 0.14736662805080414, -0.558737576007843, -0.02167775109410286, 0.03828829899430275, 0.012217286974191666, 0.078202024102211, 0.019457239657640457, -0.03253936767578125, -0.06147507205605507, -0.1521875411272049, 0.08091950416564941, -0.08162456005811691, -0.058629754930734634, -0.2334643304347992, 0.007153455168008804, -0.04618964344263077, 0.09364166855812073, -0.05762559548020363, 0.04826032742857933, -0.017980193719267845, 0.37710946798324585, 0.6154519319534302, 0.0720171183347702, 0.3464994728565216, 0.23459607362747192, -0.6970186233520508, -0.06762313842773438, -0.11438778042793274, -0.12629973888397217, 0.4497515559196472, 0.028086520731449127, 0.2544528841972351, -0.2742009460926056, 0.34224092960357666, -0.042665548622608185, 0.39792636036872864, 0.3701340854167938, 0.018869029358029366, 0.1373576670885086, 0.16578413546085358, 0.2838146388530731], "rec.bias_hh_l0": [0.5303517580032349, -0.30911386013031006, 0.3092009723186493, -0.35603561997413635, 0.4506387412548065, -0.6524942517280579, -1.4142839908599854, -1.1054997444152832, -0.8024452328681946, -0.1789674460887909, -1.071596384048462, 0.2898595631122589, -1.3191947937011719, -0.40010306239128113, 0.37952253222465515, 0.3542703688144684, -0.4198414087295532, 0.0268962774425745, -1.3174797296524048, -0.4810667037963867, 0.22935007512569427, 0.7131538987159729, 0.37167927622795105, 0.4761071503162384, 0.6227011680603027, 1.146445870399475, 1.8016599416732788, 1.2824172973632812, 0.8648492097854614, 0.7612802982330322, 1.3396220207214355, 0.039241306483745575, 1.5143342018127441, 0.8939841985702515, 0.2239992469549179, 0.23740436136722565, 0.9264373779296875, 0.543590784072876, 1.7946362495422363, 0.1476685255765915, -0.5527191162109375, -0.003223586129024625, 0.03814440593123436, 0.007579032797366381, 0.055222947150468826, 0.019593140110373497, -0.0274067260324955, -0.04298416152596474, -0.15100395679473877, 0.08726564794778824, -0.0806145891547203, -0.06091124191880226, -0.18102996051311493, 0.012725709937512875, -0.04110533371567726, 0.09776517003774643, -0.029800187796354294, 0.059377048164606094, -0.017728472128510475, 0.36475494503974915, 0.6154519319534302, 0.0720171183347702, 0.3464994728565216, 0.23459607362747192, -0.6970186233520508, -0.06762313842773438, -0.11438778042793274, -0.12629973888397217, 0.4497515559196472, 0.028086571022868156, 0.2544528841972351, -0.274200975894928, 0.34224092960357666, -0.042665548622608185, 0.39792636036872864, 0.3701340854167938, 0.018869072198867798, 0.1373576670885086, 0.16578413546085358, 0.28382551670074463], "lin.weight": [[0.06661785393953323, -1.7112162113189697, -0.9339273571968079, -0.23872226476669312, -0.12101773172616959, 0.5371168851852417, 0.3039642870426178, 0.15954214334487915, -0.009100688621401787, 0.13546673953533173, 0.1259642392396927, -0.0067620608024299145, 0.19489961862564087, 0.33887431025505066, -0.623099684715271, -0.22280722856521606, -0.39781755208969116, -0.5045095086097717, -1.3089810609817505, -0.29133328795433044]], "lin.bias": [0.044650301337242126]}}